digraph Tree {
node [shape=box, style="filled, rounded", color="black", fontname="helvetica"] ;
edge [fontname="helvetica"] ;
0 [label="resp <= 10.789\nentropy = 1.43\nsamples = 560\nvalue = [128, 319, 112, 1]\nclass = 2", fillcolor="#aef4a7"] ;
1 [label="pulso <= 123.168\nentropy = 1.083\nsamples = 269\nvalue = [114, 151, 4, 0]\nclass = 2", fillcolor="#d3f9d0"] ;
0 -> 1 [labeldistance=2.5, labelangle=45, headlabel="True"] ;
2 [label="pulso <= 43.067\nentropy = 0.897\nsamples = 163\nvalue = [34, 125, 4, 0]\nclass = 2", fillcolor="#7ded73"] ;
1 -> 2 ;
3 [label="qPA <= 4.808\nentropy = 0.871\nsamples = 48\nvalue = [34, 14, 0, 0]\nclass = 1", fillcolor="#f0b58b"] ;
2 -> 3 ;
4 [label="qPA <= -6.327\nentropy = 0.993\nsamples = 31\nvalue = [17, 14, 0, 0]\nclass = 1", fillcolor="#fae9dc"] ;
3 -> 4 ;
5 [label="entropy = 0.0\nsamples = 14\nvalue = [14, 0, 0, 0]\nclass = 1", fillcolor="#e58139"] ;
4 -> 5 ;
6 [label="entropy = 0.672\nsamples = 17\nvalue = [3, 14, 0, 0]\nclass = 2", fillcolor="#6eeb63"] ;
4 -> 6 ;
7 [label="entropy = 0.0\nsamples = 17\nvalue = [17, 0, 0, 0]\nclass = 1", fillcolor="#e58139"] ;
3 -> 7 ;
8 [label="qPA <= 1.744\nentropy = 0.218\nsamples = 115\nvalue = [0, 111, 4, 0]\nclass = 2", fillcolor="#4ee640"] ;
2 -> 8 ;
9 [label="qPA <= -4.401\nentropy = 0.454\nsamples = 42\nvalue = [0, 38, 4, 0]\nclass = 2", fillcolor="#5ae84e"] ;
8 -> 9 ;
10 [label="entropy = 0.0\nsamples = 33\nvalue = [0, 33, 0, 0]\nclass = 2", fillcolor="#47e539"] ;
9 -> 10 ;
11 [label="entropy = 0.991\nsamples = 9\nvalue = [0, 5, 4, 0]\nclass = 2", fillcolor="#dafad7"] ;
9 -> 11 ;
12 [label="entropy = 0.0\nsamples = 73\nvalue = [0, 73, 0, 0]\nclass = 2", fillcolor="#47e539"] ;
8 -> 12 ;
13 [label="qPA <= 4.918\nentropy = 0.804\nsamples = 106\nvalue = [80, 26, 0, 0]\nclass = 1", fillcolor="#edaa79"] ;
1 -> 13 ;
14 [label="qPA <= -6.382\nentropy = 0.956\nsamples = 69\nvalue = [43, 26, 0, 0]\nclass = 1", fillcolor="#f5cdb1"] ;
13 -> 14 ;
15 [label="resp <= 8.303\nentropy = 0.362\nsamples = 29\nvalue = [27, 2, 0, 0]\nclass = 1", fillcolor="#e78a48"] ;
14 -> 15 ;
16 [label="entropy = 0.0\nsamples = 20\nvalue = [20, 0, 0, 0]\nclass = 1", fillcolor="#e58139"] ;
15 -> 16 ;
17 [label="entropy = 0.764\nsamples = 9\nvalue = [7, 2, 0, 0]\nclass = 1", fillcolor="#eca572"] ;
15 -> 17 ;
18 [label="qPA <= 4.693\nentropy = 0.971\nsamples = 40\nvalue = [16, 24, 0, 0]\nclass = 2", fillcolor="#c2f6bd"] ;
14 -> 18 ;
19 [label="entropy = 0.0\nsamples = 20\nvalue = [0, 20, 0, 0]\nclass = 2", fillcolor="#47e539"] ;
18 -> 19 ;
20 [label="entropy = 0.722\nsamples = 20\nvalue = [16, 4, 0, 0]\nclass = 1", fillcolor="#eca06a"] ;
18 -> 20 ;
21 [label="entropy = 0.0\nsamples = 37\nvalue = [37, 0, 0, 0]\nclass = 1", fillcolor="#e58139"] ;
13 -> 21 ;
22 [label="resp <= 20.03\nentropy = 1.227\nsamples = 291\nvalue = [14, 168, 108, 1]\nclass = 2", fillcolor="#c3f6be"] ;
0 -> 22 [labeldistance=2.5, labelangle=-45, headlabel="False"] ;
23 [label="pulso <= 38.284\nentropy = 1.014\nsamples = 244\nvalue = [0, 142, 101, 1]\nclass = 2", fillcolor="#caf8c6"] ;
22 -> 23 ;
24 [label="pulso <= 10.06\nentropy = 0.146\nsamples = 48\nvalue = [0, 47, 1, 0]\nclass = 2", fillcolor="#4be63d"] ;
23 -> 24 ;
25 [label="entropy = 0.503\nsamples = 9\nvalue = [0, 8, 1, 0]\nclass = 2", fillcolor="#5ee852"] ;
24 -> 25 ;
26 [label="entropy = 0.0\nsamples = 39\nvalue = [0, 39, 0, 0]\nclass = 2", fillcolor="#47e539"] ;
24 -> 26 ;
27 [label="pulso <= 120.758\nentropy = 1.041\nsamples = 196\nvalue = [0, 95, 100, 1]\nclass = 3", fillcolor="#f5fafe"] ;
23 -> 27 ;
28 [label="pulso <= 54.087\nentropy = 0.86\nsamples = 84\nvalue = [0, 19, 64, 1]\nclass = 3", fillcolor="#76bbed"] ;
27 -> 28 ;
29 [label="entropy = 0.811\nsamples = 12\nvalue = [0, 9, 3, 0]\nclass = 2", fillcolor="#84ee7b"] ;
28 -> 29 ;
30 [label="entropy = 0.684\nsamples = 72\nvalue = [0, 10, 61, 1]\nclass = 3", fillcolor="#5caeea"] ;
28 -> 30 ;
31 [label="qPA <= 3.671\nentropy = 0.906\nsamples = 112\nvalue = [0, 76, 36, 0]\nclass = 2", fillcolor="#9ef197"] ;
27 -> 31 ;
32 [label="entropy = 0.987\nsamples = 60\nvalue = [0, 26, 34, 0]\nclass = 3", fillcolor="#d0e8f9"] ;
31 -> 32 ;
33 [label="entropy = 0.235\nsamples = 52\nvalue = [0, 50, 2, 0]\nclass = 2", fillcolor="#4ee641"] ;
31 -> 33 ;
34 [label="qPA <= 4.676\nentropy = 1.402\nsamples = 47\nvalue = [14, 26, 7, 0]\nclass = 2", fillcolor="#bcf6b7"] ;
22 -> 34 ;
35 [label="pulso <= 99.564\nentropy = 1.451\nsamples = 23\nvalue = [4, 12, 7, 0]\nclass = 2", fillcolor="#c6f7c1"] ;
34 -> 35 ;
36 [label="entropy = 1.281\nsamples = 12\nvalue = [1, 4, 7, 0]\nclass = 3", fillcolor="#b5daf5"] ;
35 -> 36 ;
37 [label="entropy = 0.845\nsamples = 11\nvalue = [3, 8, 0, 0]\nclass = 2", fillcolor="#8cef83"] ;
35 -> 37 ;
38 [label="qPA <= 4.847\nentropy = 0.98\nsamples = 24\nvalue = [10, 14, 0, 0]\nclass = 2", fillcolor="#caf8c6"] ;
34 -> 38 ;
39 [label="entropy = 0.684\nsamples = 11\nvalue = [2, 9, 0, 0]\nclass = 2", fillcolor="#70eb65"] ;
38 -> 39 ;
40 [label="entropy = 0.961\nsamples = 13\nvalue = [8, 5, 0, 0]\nclass = 1", fillcolor="#f5d0b5"] ;
38 -> 40 ;
}