digraph Tree {
node [shape=box, style="filled, rounded", color="black", fontname="helvetica"] ;
edge [fontname="helvetica"] ;
0 [label="resp <= 10.789\ngini = 0.583\nsamples = 560\nvalue = [128, 319, 112, 1]\nclass = 2", fillcolor="#aef4a7"] ;
1 [label="pulso <= 123.168\ngini = 0.505\nsamples = 269\nvalue = [114, 151, 4, 0]\nclass = 2", fillcolor="#d3f9d0"] ;
0 -> 1 [labeldistance=2.5, labelangle=45, headlabel="True"] ;
2 [label="pulso <= 28.001\ngini = 0.368\nsamples = 163\nvalue = [34, 125, 4, 0]\nclass = 2", fillcolor="#7ded73"] ;
1 -> 2 ;
3 [label="qPA <= 4.734\ngini = 0.278\nsamples = 36\nvalue = [30, 6, 0, 0]\nclass = 1", fillcolor="#ea9a61"] ;
2 -> 3 ;
4 [label="gini = 0.42\nsamples = 20\nvalue = [14, 6, 0, 0]\nclass = 1", fillcolor="#f0b78e"] ;
3 -> 4 ;
5 [label="gini = 0.0\nsamples = 16\nvalue = [16, 0, 0, 0]\nclass = 1", fillcolor="#e58139"] ;
3 -> 5 ;
6 [label="pulso <= 45.591\ngini = 0.12\nsamples = 127\nvalue = [4, 119, 4, 0]\nclass = 2", fillcolor="#53e746"] ;
2 -> 6 ;
7 [label="gini = 0.375\nsamples = 16\nvalue = [4, 12, 0, 0]\nclass = 2", fillcolor="#84ee7b"] ;
6 -> 7 ;
8 [label="qPA <= 2.998\ngini = 0.069\nsamples = 111\nvalue = [0, 107, 4, 0]\nclass = 2", fillcolor="#4ee640"] ;
6 -> 8 ;
9 [label="gini = 0.176\nsamples = 41\nvalue = [0, 37, 4, 0]\nclass = 2", fillcolor="#5be84e"] ;
8 -> 9 ;
10 [label="gini = 0.0\nsamples = 70\nvalue = [0, 70, 0, 0]\nclass = 2", fillcolor="#47e539"] ;
8 -> 10 ;
11 [label="qPA <= 4.701\ngini = 0.37\nsamples = 106\nvalue = [80, 26, 0, 0]\nclass = 1", fillcolor="#edaa79"] ;
1 -> 11 ;
12 [label="qPA <= -6.382\ngini = 0.495\nsamples = 51\nvalue = [28, 23, 0, 0]\nclass = 1", fillcolor="#fae8dc"] ;
11 -> 12 ;
13 [label="gini = 0.128\nsamples = 29\nvalue = [27, 2, 0, 0]\nclass = 1", fillcolor="#e78a48"] ;
12 -> 13 ;
14 [label="gini = 0.087\nsamples = 22\nvalue = [1, 21, 0, 0]\nclass = 2", fillcolor="#50e642"] ;
12 -> 14 ;
15 [label="pulso <= 141.355\ngini = 0.103\nsamples = 55\nvalue = [52, 3, 0, 0]\nclass = 1", fillcolor="#e68844"] ;
11 -> 15 ;
16 [label="gini = 0.305\nsamples = 16\nvalue = [13, 3, 0, 0]\nclass = 1", fillcolor="#eb9e67"] ;
15 -> 16 ;
17 [label="gini = 0.0\nsamples = 39\nvalue = [39, 0, 0, 0]\nclass = 1", fillcolor="#e58139"] ;
15 -> 17 ;
18 [label="pulso <= 51.771\ngini = 0.527\nsamples = 291\nvalue = [14, 168, 108, 1]\nclass = 2", fillcolor="#c3f6be"] ;
0 -> 18 [labeldistance=2.5, labelangle=-45, headlabel="False"] ;
19 [label="resp <= 19.526\ngini = 0.25\nsamples = 71\nvalue = [7, 61, 3, 0]\nclass = 2", fillcolor="#64e958"] ;
18 -> 19 ;
20 [label="resp <= 13.748\ngini = 0.103\nsamples = 55\nvalue = [0, 52, 3, 0]\nclass = 2", fillcolor="#52e644"] ;
19 -> 20 ;
21 [label="gini = 0.236\nsamples = 22\nvalue = [0, 19, 3, 0]\nclass = 2", fillcolor="#64e958"] ;
20 -> 21 ;
22 [label="gini = 0.0\nsamples = 33\nvalue = [0, 33, 0, 0]\nclass = 2", fillcolor="#47e539"] ;
20 -> 22 ;
23 [label="gini = 0.492\nsamples = 16\nvalue = [7, 9, 0, 0]\nclass = 2", fillcolor="#d6f9d3"] ;
19 -> 23 ;
24 [label="pulso <= 102.789\ngini = 0.535\nsamples = 220\nvalue = [7, 107, 105, 1]\nclass = 2", fillcolor="#fcfffc"] ;
18 -> 24 ;
25 [label="qPA <= 4.788\ngini = 0.225\nsamples = 62\nvalue = [0, 8, 54, 0]\nclass = 3", fillcolor="#56ace9"] ;
24 -> 25 ;
26 [label="resp <= 15.252\ngini = 0.097\nsamples = 39\nvalue = [0, 2, 37, 0]\nclass = 3", fillcolor="#44a2e6"] ;
25 -> 26 ;
27 [label="gini = 0.219\nsamples = 16\nvalue = [0, 2, 14, 0]\nclass = 3", fillcolor="#55abe9"] ;
26 -> 27 ;
28 [label="gini = 0.0\nsamples = 23\nvalue = [0, 0, 23, 0]\nclass = 3", fillcolor="#399de5"] ;
26 -> 28 ;
29 [label="gini = 0.386\nsamples = 23\nvalue = [0, 6, 17, 0]\nclass = 3", fillcolor="#7fc0ee"] ;
25 -> 29 ;
30 [label="qPA <= 2.883\ngini = 0.501\nsamples = 158\nvalue = [7, 99, 51, 1]\nclass = 2", fillcolor="#acf3a6"] ;
24 -> 30 ;
31 [label="resp <= 12.273\ngini = 0.531\nsamples = 84\nvalue = [3, 33, 47, 1]\nclass = 3", fillcolor="#c9e4f8"] ;
30 -> 31 ;
32 [label="gini = 0.117\nsamples = 16\nvalue = [0, 15, 1, 0]\nclass = 2", fillcolor="#53e746"] ;
31 -> 32 ;
33 [label="gini = 0.47\nsamples = 68\nvalue = [3, 18, 46, 1]\nclass = 3", fillcolor="#90c8f0"] ;
31 -> 33 ;
34 [label="resp <= 19.555\ngini = 0.199\nsamples = 74\nvalue = [4, 66, 4, 0]\nclass = 2", fillcolor="#5ce850"] ;
30 -> 34 ;
35 [label="gini = 0.128\nsamples = 58\nvalue = [0, 54, 4, 0]\nclass = 2", fillcolor="#55e748"] ;
34 -> 35 ;
36 [label="gini = 0.375\nsamples = 16\nvalue = [4, 12, 0, 0]\nclass = 2", fillcolor="#84ee7b"] ;
34 -> 36 ;
}