digraph Tree {
node [shape=box, style="filled, rounded", color="black", fontname="helvetica"] ;
edge [fontname="helvetica"] ;
0 [label="resp <= 10.957\nentropy = 1.453\nsamples = 560\nvalue = [130, 310, 119, 1]\nclass = 2", fillcolor="#b2f4ac"] ;
1 [label="pulso <= 135.315\nentropy = 1.12\nsamples = 258\nvalue = [107, 145, 6, 0]\nclass = 2", fillcolor="#d1f8cd"] ;
0 -> 1 [labeldistance=2.5, labelangle=45, headlabel="True"] ;
2 [label="pulso <= 43.067\nentropy = 0.994\nsamples = 176\nvalue = [42, 128, 6, 0]\nclass = 2", fillcolor="#89ee80"] ;
1 -> 2 ;
3 [label="qPA <= 4.796\nentropy = 0.843\nsamples = 48\nvalue = [35, 13, 0, 0]\nclass = 1", fillcolor="#efb083"] ;
2 -> 3 ;
4 [label="entropy = 0.978\nsamples = 29\nvalue = [17, 12, 0, 0]\nclass = 1", fillcolor="#f7dac5"] ;
3 -> 4 ;
5 [label="entropy = 0.297\nsamples = 19\nvalue = [18, 1, 0, 0]\nclass = 1", fillcolor="#e68844"] ;
3 -> 5 ;
6 [label="pulso <= 123.168\nentropy = 0.575\nsamples = 128\nvalue = [7, 115, 6, 0]\nclass = 2", fillcolor="#5be84e"] ;
2 -> 6 ;
7 [label="qPA <= 1.676\nentropy = 0.305\nsamples = 110\nvalue = [0, 104, 6, 0]\nclass = 2", fillcolor="#52e644"] ;
6 -> 7 ;
8 [label="entropy = 0.544\nsamples = 48\nvalue = [0, 42, 6, 0]\nclass = 2", fillcolor="#61e955"] ;
7 -> 8 ;
9 [label="entropy = 0.0\nsamples = 62\nvalue = [0, 62, 0, 0]\nclass = 2", fillcolor="#47e539"] ;
7 -> 9 ;
10 [label="entropy = 0.964\nsamples = 18\nvalue = [7, 11, 0, 0]\nclass = 2", fillcolor="#bcf6b7"] ;
6 -> 10 ;
11 [label="qPA <= 4.696\nentropy = 0.736\nsamples = 82\nvalue = [65, 17, 0, 0]\nclass = 1", fillcolor="#eca26d"] ;
1 -> 11 ;
12 [label="qPA <= -8.171\nentropy = 0.982\nsamples = 38\nvalue = [22, 16, 0, 0]\nclass = 1", fillcolor="#f8ddc9"] ;
11 -> 12 ;
13 [label="entropy = 0.426\nsamples = 23\nvalue = [21, 2, 0, 0]\nclass = 1", fillcolor="#e78d4c"] ;
12 -> 13 ;
14 [label="entropy = 0.353\nsamples = 15\nvalue = [1, 14, 0, 0]\nclass = 2", fillcolor="#54e747"] ;
12 -> 14 ;
15 [label="pulso <= 184.664\nentropy = 0.156\nsamples = 44\nvalue = [43, 1, 0, 0]\nclass = 1", fillcolor="#e6843e"] ;
11 -> 15 ;
16 [label="entropy = 0.0\nsamples = 29\nvalue = [29, 0, 0, 0]\nclass = 1", fillcolor="#e58139"] ;
15 -> 16 ;
17 [label="entropy = 0.353\nsamples = 15\nvalue = [14, 1, 0, 0]\nclass = 1", fillcolor="#e78a47"] ;
15 -> 17 ;
18 [label="resp <= 19.729\nentropy = 1.317\nsamples = 302\nvalue = [23, 165, 113, 1]\nclass = 2", fillcolor="#ccf8c9"] ;
0 -> 18 [labeldistance=2.5, labelangle=-45, headlabel="False"] ;
19 [label="pulso <= 44.291\nentropy = 1.017\nsamples = 243\nvalue = [0, 140, 102, 1]\nclass = 2", fillcolor="#cdf8ca"] ;
18 -> 19 ;
20 [label="pulso <= 13.374\nentropy = 0.149\nsamples = 47\nvalue = [0, 46, 1, 0]\nclass = 2", fillcolor="#4be63d"] ;
19 -> 20 ;
21 [label="entropy = 0.353\nsamples = 15\nvalue = [0, 14, 1, 0]\nclass = 2", fillcolor="#54e747"] ;
20 -> 21 ;
22 [label="entropy = 0.0\nsamples = 32\nvalue = [0, 32, 0, 0]\nclass = 2", fillcolor="#47e539"] ;
20 -> 22 ;
23 [label="pulso <= 112.674\nentropy = 1.04\nsamples = 196\nvalue = [0, 94, 101, 1]\nclass = 3", fillcolor="#f1f8fd"] ;
19 -> 23 ;
24 [label="pulso <= 63.258\nentropy = 0.786\nsamples = 76\nvalue = [0, 14, 61, 1]\nclass = 3", fillcolor="#69b5eb"] ;
23 -> 24 ;
25 [label="entropy = 0.999\nsamples = 23\nvalue = [0, 11, 12, 0]\nclass = 3", fillcolor="#eff7fd"] ;
24 -> 25 ;
26 [label="entropy = 0.447\nsamples = 53\nvalue = [0, 3, 49, 1]\nclass = 3", fillcolor="#49a5e7"] ;
24 -> 26 ;
27 [label="qPA <= 4.706\nentropy = 0.918\nsamples = 120\nvalue = [0, 80, 40, 0]\nclass = 2", fillcolor="#a3f29c"] ;
23 -> 27 ;
28 [label="entropy = 0.973\nsamples = 67\nvalue = [0, 27, 40, 0]\nclass = 3", fillcolor="#bfdff7"] ;
27 -> 28 ;
29 [label="entropy = 0.0\nsamples = 53\nvalue = [0, 53, 0, 0]\nclass = 2", fillcolor="#47e539"] ;
27 -> 29 ;
30 [label="qPA <= 3.499\nentropy = 1.507\nsamples = 59\nvalue = [23, 25, 11, 0]\nclass = 2", fillcolor="#f5fef4"] ;
18 -> 30 ;
31 [label="entropy = 1.561\nsamples = 27\nvalue = [7, 9, 11, 0]\nclass = 3", fillcolor="#e9f4fc"] ;
30 -> 31 ;
32 [label="qPA <= 8.657\nentropy = 1.0\nsamples = 32\nvalue = [16, 16, 0, 0]\nclass = 1", fillcolor="#ffffff"] ;
30 -> 32 ;
33 [label="entropy = 0.722\nsamples = 15\nvalue = [3, 12, 0, 0]\nclass = 2", fillcolor="#75ec6a"] ;
32 -> 33 ;
34 [label="entropy = 0.787\nsamples = 17\nvalue = [13, 4, 0, 0]\nclass = 1", fillcolor="#eda876"] ;
32 -> 34 ;
}