digraph Tree {
node [shape=box, style="filled, rounded", color="black", fontname="helvetica"] ;
edge [fontname="helvetica"] ;
0 [label="resp <= 10.789\ngini = 0.583\nsamples = 560\nvalue = [128, 319, 112, 1]\nclass = 2", fillcolor="#aef4a7"] ;
1 [label="pulso <= 123.168\ngini = 0.505\nsamples = 269\nvalue = [114, 151, 4, 0]\nclass = 2", fillcolor="#d3f9d0"] ;
0 -> 1 [labeldistance=2.5, labelangle=45, headlabel="True"] ;
2 [label="pulso <= 28.001\ngini = 0.368\nsamples = 163\nvalue = [34, 125, 4, 0]\nclass = 2", fillcolor="#7ded73"] ;
1 -> 2 ;
3 [label="resp <= 8.524\ngini = 0.278\nsamples = 36\nvalue = [30, 6, 0, 0]\nclass = 1", fillcolor="#ea9a61"] ;
2 -> 3 ;
4 [label="resp <= 2.902\ngini = 0.077\nsamples = 25\nvalue = [24, 1, 0, 0]\nclass = 1", fillcolor="#e68641"] ;
3 -> 4 ;
5 [label="gini = 0.198\nsamples = 9\nvalue = [8, 1, 0, 0]\nclass = 1", fillcolor="#e89152"] ;
4 -> 5 ;
6 [label="gini = 0.0\nsamples = 16\nvalue = [16, 0, 0, 0]\nclass = 1", fillcolor="#e58139"] ;
4 -> 6 ;
7 [label="gini = 0.496\nsamples = 11\nvalue = [6, 5, 0, 0]\nclass = 1", fillcolor="#fbeade"] ;
3 -> 7 ;
8 [label="pulso <= 43.067\ngini = 0.12\nsamples = 127\nvalue = [4, 119, 4, 0]\nclass = 2", fillcolor="#53e746"] ;
2 -> 8 ;
9 [label="gini = 0.444\nsamples = 12\nvalue = [4, 8, 0, 0]\nclass = 2", fillcolor="#a3f29c"] ;
8 -> 9 ;
10 [label="qPA <= 1.744\ngini = 0.067\nsamples = 115\nvalue = [0, 111, 4, 0]\nclass = 2", fillcolor="#4ee640"] ;
8 -> 10 ;
11 [label="qPA <= -4.401\ngini = 0.172\nsamples = 42\nvalue = [0, 38, 4, 0]\nclass = 2", fillcolor="#5ae84e"] ;
10 -> 11 ;
12 [label="gini = 0.0\nsamples = 33\nvalue = [0, 33, 0, 0]\nclass = 2", fillcolor="#47e539"] ;
11 -> 12 ;
13 [label="gini = 0.494\nsamples = 9\nvalue = [0, 5, 4, 0]\nclass = 2", fillcolor="#dafad7"] ;
11 -> 13 ;
14 [label="gini = 0.0\nsamples = 73\nvalue = [0, 73, 0, 0]\nclass = 2", fillcolor="#47e539"] ;
10 -> 14 ;
15 [label="qPA <= 4.701\ngini = 0.37\nsamples = 106\nvalue = [80, 26, 0, 0]\nclass = 1", fillcolor="#edaa79"] ;
1 -> 15 ;
16 [label="qPA <= -6.382\ngini = 0.495\nsamples = 51\nvalue = [28, 23, 0, 0]\nclass = 1", fillcolor="#fae8dc"] ;
15 -> 16 ;
17 [label="resp <= 8.303\ngini = 0.128\nsamples = 29\nvalue = [27, 2, 0, 0]\nclass = 1", fillcolor="#e78a48"] ;
16 -> 17 ;
18 [label="gini = 0.0\nsamples = 20\nvalue = [20, 0, 0, 0]\nclass = 1", fillcolor="#e58139"] ;
17 -> 18 ;
19 [label="gini = 0.346\nsamples = 9\nvalue = [7, 2, 0, 0]\nclass = 1", fillcolor="#eca572"] ;
17 -> 19 ;
20 [label="qPA <= 1.786\ngini = 0.087\nsamples = 22\nvalue = [1, 21, 0, 0]\nclass = 2", fillcolor="#50e642"] ;
16 -> 20 ;
21 [label="gini = 0.0\nsamples = 13\nvalue = [0, 13, 0, 0]\nclass = 2", fillcolor="#47e539"] ;
20 -> 21 ;
22 [label="gini = 0.198\nsamples = 9\nvalue = [1, 8, 0, 0]\nclass = 2", fillcolor="#5ee852"] ;
20 -> 22 ;
23 [label="pulso <= 134.696\ngini = 0.103\nsamples = 55\nvalue = [52, 3, 0, 0]\nclass = 1", fillcolor="#e68844"] ;
15 -> 23 ;
24 [label="gini = 0.444\nsamples = 9\nvalue = [6, 3, 0, 0]\nclass = 1", fillcolor="#f2c09c"] ;
23 -> 24 ;
25 [label="gini = 0.0\nsamples = 46\nvalue = [46, 0, 0, 0]\nclass = 1", fillcolor="#e58139"] ;
23 -> 25 ;
26 [label="pulso <= 51.771\ngini = 0.527\nsamples = 291\nvalue = [14, 168, 108, 1]\nclass = 2", fillcolor="#c3f6be"] ;
0 -> 26 [labeldistance=2.5, labelangle=-45, headlabel="False"] ;
27 [label="resp <= 19.85\ngini = 0.25\nsamples = 71\nvalue = [7, 61, 3, 0]\nclass = 2", fillcolor="#64e958"] ;
26 -> 27 ;
28 [label="pulso <= 38.284\ngini = 0.1\nsamples = 57\nvalue = [0, 54, 3, 0]\nclass = 2", fillcolor="#51e644"] ;
27 -> 28 ;
29 [label="pulso <= 10.06\ngini = 0.041\nsamples = 48\nvalue = [0, 47, 1, 0]\nclass = 2", fillcolor="#4be63d"] ;
28 -> 29 ;
30 [label="gini = 0.198\nsamples = 9\nvalue = [0, 8, 1, 0]\nclass = 2", fillcolor="#5ee852"] ;
29 -> 30 ;
31 [label="gini = 0.0\nsamples = 39\nvalue = [0, 39, 0, 0]\nclass = 2", fillcolor="#47e539"] ;
29 -> 31 ;
32 [label="gini = 0.346\nsamples = 9\nvalue = [0, 7, 2, 0]\nclass = 2", fillcolor="#7cec72"] ;
28 -> 32 ;
33 [label="gini = 0.5\nsamples = 14\nvalue = [7, 7, 0, 0]\nclass = 1", fillcolor="#ffffff"] ;
27 -> 33 ;
34 [label="pulso <= 102.789\ngini = 0.535\nsamples = 220\nvalue = [7, 107, 105, 1]\nclass = 2", fillcolor="#fcfffc"] ;
26 -> 34 ;
35 [label="resp <= 12.41\ngini = 0.225\nsamples = 62\nvalue = [0, 8, 54, 0]\nclass = 3", fillcolor="#56ace9"] ;
34 -> 35 ;
36 [label="gini = 0.494\nsamples = 9\nvalue = [0, 4, 5, 0]\nclass = 3", fillcolor="#d7ebfa"] ;
35 -> 36 ;
37 [label="resp <= 19.584\ngini = 0.14\nsamples = 53\nvalue = [0, 4, 49, 0]\nclass = 3", fillcolor="#49a5e7"] ;
35 -> 37 ;
38 [label="gini = 0.0\nsamples = 41\nvalue = [0, 0, 41, 0]\nclass = 3", fillcolor="#399de5"] ;
37 -> 38 ;
39 [label="gini = 0.444\nsamples = 12\nvalue = [0, 4, 8, 0]\nclass = 3", fillcolor="#9ccef2"] ;
37 -> 39 ;
40 [label="qPA <= 2.883\ngini = 0.501\nsamples = 158\nvalue = [7, 99, 51, 1]\nclass = 2", fillcolor="#acf3a6"] ;
34 -> 40 ;
41 [label="resp <= 12.273\ngini = 0.531\nsamples = 84\nvalue = [3, 33, 47, 1]\nclass = 3", fillcolor="#c9e4f8"] ;
40 -> 41 ;
42 [label="gini = 0.117\nsamples = 16\nvalue = [0, 15, 1, 0]\nclass = 2", fillcolor="#53e746"] ;
41 -> 42 ;
43 [label="resp <= 17.834\ngini = 0.47\nsamples = 68\nvalue = [3, 18, 46, 1]\nclass = 3", fillcolor="#90c8f0"] ;
41 -> 43 ;
44 [label="resp <= 14.082\ngini = 0.121\nsamples = 47\nvalue = [0, 2, 44, 1]\nclass = 3", fillcolor="#46a4e7"] ;
43 -> 44 ;
45 [label="gini = 0.403\nsamples = 12\nvalue = [0, 2, 9, 1]\nclass = 3", fillcolor="#74baed"] ;
44 -> 45 ;
46 [label="gini = 0.0\nsamples = 35\nvalue = [0, 0, 35, 0]\nclass = 3", fillcolor="#399de5"] ;
44 -> 46 ;
47 [label="pulso <= 154.297\ngini = 0.39\nsamples = 21\nvalue = [3, 16, 2, 0]\nclass = 2", fillcolor="#7aec70"] ;
43 -> 47 ;
48 [label="gini = 0.153\nsamples = 12\nvalue = [0, 11, 1, 0]\nclass = 2", fillcolor="#58e74b"] ;
47 -> 48 ;
49 [label="gini = 0.568\nsamples = 9\nvalue = [3, 5, 1, 0]\nclass = 2", fillcolor="#c2f6bd"] ;
47 -> 49 ;
50 [label="resp <= 20.319\ngini = 0.199\nsamples = 74\nvalue = [4, 66, 4, 0]\nclass = 2", fillcolor="#5ce850"] ;
40 -> 50 ;
51 [label="pulso <= 123.823\ngini = 0.123\nsamples = 61\nvalue = [0, 57, 4, 0]\nclass = 2", fillcolor="#54e747"] ;
50 -> 51 ;
52 [label="gini = 0.444\nsamples = 12\nvalue = [0, 8, 4, 0]\nclass = 2", fillcolor="#a3f29c"] ;
51 -> 52 ;
53 [label="gini = 0.0\nsamples = 49\nvalue = [0, 49, 0, 0]\nclass = 2", fillcolor="#47e539"] ;
51 -> 53 ;
54 [label="gini = 0.426\nsamples = 13\nvalue = [4, 9, 0, 0]\nclass = 2", fillcolor="#99f191"] ;
50 -> 54 ;
}